<?xml version="1.0"?>
<opencv_storage>
<stage2>
  <maxWeakCount>6</maxWeakCount>
  <stageThreshold>-9.7326892614364624e-01</stageThreshold>
  <weakClassifiers>
    <_>
      <internalNodes>
        0 -1 99681 678153982 -80019649 1056669562 2126135098 -1650984965
        -1820344321 1970749371 937377653</internalNodes>
      <leafValues>
        -6.2644118070602417e-01 9.6799999475479126e-01</leafValues></_>
    <_>
      <internalNodes>
        0 -1 297129 -1902734074 -414187684 2147458666 1039024094
        -1749696760 926678519 938848181 535967677</internalNodes>
      <leafValues>
        -5.2708506584167480e-01 6.5490156412124634e-01</leafValues></_>
    <_>
      <internalNodes>
        0 -1 1035820 -708820966 1351631106 -1056915184 -2146958976
        8421378 276889928 1078232128 1152000043</internalNodes>
      <leafValues>
        -6.6895300149917603e-01 4.8739489912986755e-01</leafValues></_>
    <_>
      <internalNodes>
        0 -1 257975 -285285524 -159911057 -1208042384 913800191
        938999802 -469762177 -143130762 1048542965</internalNodes>
      <leafValues>
        -4.9898591637611389e-01 7.2919172048568726e-01</leafValues></_>
    <_>
      <internalNodes>
        0 -1 518720 537051200 -977158080 32768 -721420288 -2147450720 0
        0 1098907648</internalNodes>
      <leafValues>
        -4.2406922578811646e-01 7.9498994350433350e-01</leafValues></_>
    <_>
      <internalNodes>
        0 -1 1085955 -201425564 -432261202 -2108096788 148331979
        2137849061 -1110696065 1629803551 1583864584</internalNodes>
      <leafValues>
        -5.6606906652450562e-01 6.4418637752532959e-01</leafValues></_></weakClassifiers></stage2>
</opencv_storage>
