<?xml version="1.0"?>
<opencv_storage>
<stage1>
  <maxWeakCount>7</maxWeakCount>
  <stageThreshold>-1.7050958871841431e+00</stageThreshold>
  <weakClassifiers>
    <_>
      <internalNodes>
        0 -1 277304 -353252670 -818055306 2080338722 -92655764
        -205792292 -1300201344 -2147483624 983629824</internalNodes>
      <leafValues>
        -6.4126986265182495e-01 8.5576921701431274e-01</leafValues></_>
    <_>
      <internalNodes>
        0 -1 455337 536903846 1291944192 1342177344 -956268544 8945792
        12583104 16544 469762048</internalNodes>
      <leafValues>
        -5.5113947391510010e-01 5.6285774707794189e-01</leafValues></_>
    <_>
      <internalNodes>
        0 -1 542795 712502050 -1417682993 -1073764354 1811561467
        -134271166 528465917 1061105656 871776252</internalNodes>
      <leafValues>
        -4.7326299548149109e-01 5.5933976173400879e-01</leafValues></_>
    <_>
      <internalNodes>
        0 -1 907 -1056898943 -805236480 16777296 -2130706031 -2147450688
        33184 192 1476477288</internalNodes>
      <leafValues>
        -6.3885080814361572e-01 4.0777841210365295e-01</leafValues></_>
    <_>
      <internalNodes>
        0 -1 249168 30482752 -649035647 4096 1342308352 -2134857532
        143165568 128 143130752</internalNodes>
      <leafValues>
        -4.9414506554603577e-01 6.2779426574707031e-01</leafValues></_>
    <_>
      <internalNodes>
        0 -1 30056 -298758469 -1701126314 788525037 -178356261
        1875229972 301367261 -1133619212 -620794401</internalNodes>
      <leafValues>
        -4.4246402382850647e-01 6.9721972942352295e-01</leafValues></_>
    <_>
      <internalNodes>
        0 -1 604175 -1072649396 -1050744446 4194310 1879097986
        -1879019248 570425856 32896 704807467</internalNodes>
      <leafValues>
        -6.5027660131454468e-01 4.6387723088264465e-01</leafValues></_></weakClassifiers></stage1>
</opencv_storage>
