<?xml version="1.0"?>
<opencv_storage>
<stage0>
  <maxWeakCount>7</maxWeakCount>
  <stageThreshold>-1.7687149047851562e+00</stageThreshold>
  <weakClassifiers>
    <_>
      <internalNodes>
        0 -1 436373 420724736 -738213887 268435456 -638517245
        -2147250096 8618049 128 411762689</internalNodes>
      <leafValues>
        -6.8685120344161987e-01 6.5769231319427490e-01</leafValues></_>
    <_>
      <internalNodes>
        0 -1 174353 302071840 -48262783 1342177296 -114622462 536920512
        880869376 268435585 1487601664</internalNodes>
      <leafValues>
        -6.3472700119018555e-01 4.9149867892265320e-01</leafValues></_>
    <_>
      <internalNodes>
        0 -1 949072 1615065155 -1702117375 67207562 738308106 -536821760
        -2147368960 -1073627103 1889722921</internalNodes>
      <leafValues>
        -7.7660012245178223e-01 3.7394335865974426e-01</leafValues></_>
    <_>
      <internalNodes>
        0 -1 276570 -1498159549 -1 -1074058502 -5292097 -1212680368
        1069498303 938950650 1069498295</internalNodes>
      <leafValues>
        -3.8308084011077881e-01 7.5166910886764526e-01</leafValues></_>
    <_>
      <internalNodes>
        0 -1 181793 1853771246 2134343551 2063563690 2088451963
        -1275330594 859832319 -134268944 2013249393</internalNodes>
      <leafValues>
        -3.8632717728614807e-01 5.9512513875961304e-01</leafValues></_>
    <_>
      <internalNodes>
        0 -1 221608 -1689190368 -682585839 -738181120 -652214272
        -2122209214 -1669300096 0 1032454185</internalNodes>
      <leafValues>
        -4.3371689319610596e-01 5.8593267202377319e-01</leafValues></_>
    <_>
      <internalNodes>
        0 -1 794268 -1157558143 -707524220 -2097020795 2040011265
        -671051639 -133103104 -1610577792 713707400</internalNodes>
      <leafValues>
        -8.0435919761657715e-01 3.8204476237297058e-01</leafValues></_></weakClassifiers></stage0>
</opencv_storage>
