<?xml version="1.0"?>
<opencv_storage>
<stage2>
  <maxWeakCount>6</maxWeakCount>
  <stageThreshold>-9.1191738843917847e-01</stageThreshold>
  <weakClassifiers>
    <_>
      <internalNodes>
        0 -1 300434 -2147383288 -867655680 0 -1073709056 -2139045760
        1082687488 -2147483632 0</internalNodes>
      <leafValues>
        -7.6274329423904419e-01 7.6722091436386108e-01</leafValues></_>
    <_>
      <internalNodes>
        0 -1 93041 -2008970644 -965019794 -65652 2097020886 -134742671
        2140667767 2147434303 -142649377</internalNodes>
      <leafValues>
        -5.5347901582717896e-01 7.7882450819015503e-01</leafValues></_>
    <_>
      <internalNodes>
        0 -1 157659 1861679848 931053559 1073374962 1668693883
        2147468925 -688641 -134223949 527957974</internalNodes>
      <leafValues>
        -4.9964484572410583e-01 7.6414227485656738e-01</leafValues></_>
    <_>
      <internalNodes>
        0 -1 805747 285331662 285245440 32896 268435521 1073774664
        1384120320 -1073692476 -2101247805</internalNodes>
      <leafValues>
        -5.6215608119964600e-01 6.5980988740921021e-01</leafValues></_>
    <_>
      <internalNodes>
        0 -1 395543 -352399692 2063335414 2147102718 2063237090
        -134275083 -1216381089 1065318390 830283588</internalNodes>
      <leafValues>
        -5.5317217111587524e-01 7.1471625566482544e-01</leafValues></_>
    <_>
      <internalNodes>
        0 -1 230037 -926076192 303365806 -154224652 -1747359888
        -1116488903 -1933615105 -142690443 -439110218</internalNodes>
      <leafValues>
        -4.6647512912750244e-01 8.5413867235183716e-01</leafValues></_></weakClassifiers></stage2>
</opencv_storage>
